<?xml version="1.0"?>
<opencv_storage>
<my_svm type_id="opencv-ml-svm">
  <svm_type>C_SVC</svm_type>
  <kernel><type>RBF</type>
    <gamma>1.</gamma></kernel>
  <C>1.</C>
  <term_criteria><epsilon>2.2204460492503131e-016</epsilon>
    <iterations>100</iterations></term_criteria>
  <var_all>2</var_all>
  <var_count>2</var_count>
  <class_count>2</class_count>
  <class_labels type_id="opencv-matrix">
    <rows>1</rows>
    <cols>2</cols>
    <dt>i</dt>
    <data>
      -1 0</data></class_labels>
  <sv_total>200</sv_total>
  <support_vectors>
    <_>
      3.53153992e+002 158.</_>
    <_>
      3.76325989e+002 158.</_>
    <_>
      3.94811005e+002 157.</_>
    <_>
      4.01036987e+002 155.</_>
    <_>
      4.45664001e+002 154.</_>
    <_>
      4.86250000e+002 153.</_>
    <_>
      5.17622009e+002 154.</_>
    <_>
      4.53380005e+002 155.</_>
    <_>
      4.07480011e+002 156.</_>
    <_>
      3.85822998e+002 157.</_>
    <_>
      5.23906982e+002 154.</_>
    <_>
      5.10675995e+002 153.</_>
    <_>
      4.77764008e+002 149.</_>
    <_>
      4.30794006e+002 151.</_>
    <_>
      3.90550995e+002 152.</_>
    <_>
      4.15136993e+002 155.</_>
    <_>
      4.97764008e+002 153.</_>
    <_>
      4.93705994e+002 148.</_>
    <_>
      4.57278992e+002 148.</_>
    <_>
      3.95966003e+002 151.</_>
    <_>
      5.12190979e+002 147.</_>
    <_>
      5.23119995e+002 146.</_>
    <_>
      5.01806000e+002 146.</_>
    <_>
      4.29966003e+002 144.</_>
    <_>
      4.07480011e+002 145.</_>
    <_>
      3.99480011e+002 146.</_>
    <_>
      3.63822998e+002 147.</_>
    <_>
      4.51480011e+002 145.</_>
    <_>
      4.44936005e+002 142.</_>
    <_>
      4.37522003e+002 142.</_>
    <_>
      3.86994995e+002 144.</_>
    <_>
      3.78408997e+002 145.</_>
    <_>
      3.54066010e+002 145.</_>
    <_>
      3.50125000e+002 141.</_>
    <_>
      3.16125000e+002 130.</_>
    <_>
      3.03196014e+002 129.</_>
    <_>
      2.63053986e+002 107.</_>
    <_>
      1.31313995e+002 61.</_>
    <_>
      1.12485001e+002 52.</_>
    <_>
      1.40869995e+002 63.</_>
    <_>
      2.88911987e+002 127.</_>
    <_>
      3.70325989e+002 148.</_>
    <_>
      4.22692993e+002 142.</_>
    <_>
      3.85681000e+002 150.</_>
    <_>
      4.70936005e+002 146.</_>
    <_>
      4.14652008e+002 148.</_>
    <_>
      3.79822998e+002 152.</_>
    <_>
      5.31078003e+002 150.</_>
    <_>
      4.66350006e+002 151.</_>
    <_>
      5.65262024e+002 151.</_>
    <_>
      5.51604980e+002 151.</_>
    <_>
      3.10994995e+002 124.</_>
    <_>
      2.07781998e+002 81.</_>
    <_>
      1.31496994e+002 45.</_>
    <_>
      1.09112999e+002 36.</_>
    <_>
      3.48325989e+002 155.</_>
    <_>
      4.22408997e+002 152.</_>
    <_>
      5.37320984e+002 154.</_>
    <_>
      5.80474976e+002 152.</_>
    <_>
      5.58474976e+002 151.</_>
    <_>
      4.85220001e+002 147.</_>
    <_>
      4.46350006e+002 149.</_>
    <_>
      4.04166992e+002 150.</_>
    <_>
      3.40023987e+002 143.</_>
    <_>
      3.28852997e+002 142.</_>
    <_>
      3.18953003e+002 139.</_>
    <_>
      1.76042007e+002 61.</_>
    <_>
      1.18971001e+002 51.</_>
    <_>
      1.77212997e+002 71.</_>
    <_>
      2.43354996e+002 84.</_>
    <_>
      2.60225006e+002 89.</_>
    <_>
      3.91966003e+002 146.</_>
    <_>
      4.41480011e+002 147.</_>
    <_>
      5.45018982e+002 147.</_>
    <_>
      5.17320984e+002 148.</_>
    <_>
      5.71848022e+002 150.</_>
    <_>
      4.26936005e+002 155.</_>
    <_>
      4.74492004e+002 154.</_>
    <_>
      5.99747009e+002 152.</_>
    <_>
      5.90919006e+002 151.</_>
    <_>
      3.58994995e+002 149.</_>
    <_>
      3.48852997e+002 146.</_>
    <_>
      1.54384995e+002 72.</_>
    <_>
      1.05070999e+002 49.</_>
    <_>
      1.72384995e+002 73.</_>
    <_>
      1.95598007e+002 75.</_>
    <_>
      4.67036987e+002 156.</_>
    <_>
      5.41989990e+002 152.</_>
    <_>
      4.37278992e+002 152.</_>
    <_>
      5.63119995e+002 145.</_>
    <_>
      5.54978027e+002 145.</_>
    <_>
      5.29604980e+002 145.</_>
    <_>
      4.61178986e+002 144.</_>
    <_>
      4.94250000e+002 142.</_>
    <_>
      4.76250000e+002 141.</_>
    <_>
      4.66835999e+002 141.</_>
    <_>
      4.16510010e+002 141.</_>
    <_>
      3.73782013e+002 143.</_>
    <_>
      2.63255005e+002 120.</_>
    <_>
      1.04971001e+002 44.</_>
    <_>
      1.95598007e+002 71.</_>
    <_>
      1.56770004e+002 55.</_>
    <_>
      2.60569000e+002 89.</_>
    <_>
      3.39881989e+002 112.</_>
    <_>
      3.16467987e+002 113.</_>
    <_>
      4.00794006e+002 115.</_>
    <_>
      4.60877014e+002 115.</_>
    <_>
      4.68575989e+002 114.</_>
    <_>
      4.76089996e+002 113.</_>
    <_>
      4.31562988e+002 109.</_>
    <_>
      4.05321014e+002 108.</_>
    <_>
      3.52835999e+002 107.</_>
    <_>
      3.70692993e+002 109.</_>
    <_>
      4.43078003e+002 108.</_>
    <_>
      4.63362000e+002 109.</_>
    <_>
      3.60350006e+002 109.</_>
    <_>
      4.48191010e+002 112.</_>
    <_>
      4.16006989e+002 108.</_>
    <_>
      3.89036987e+002 114.</_>
    <_>
      4.21806000e+002 112.</_>
    <_>
      3.78835999e+002 114.</_>
    <_>
      3.50692993e+002 115.</_>
    <_>
      3.46066010e+002 108.</_>
    <_>
      2.73539001e+002 91.</_>
    <_>
      2.45639999e+002 87.</_>
    <_>
      2.30225006e+002 85.</_>
    <_>
      2.08569000e+002 83.</_>
    <_>
      1.87255005e+002 82.</_>
    <_>
      1.71113007e+002 79.</_>
    <_>
      1.16626999e+002 53.</_>
    <_>
      1.21254997e+002 40.</_>
    <_>
      1.47496994e+002 50.</_>
    <_>
      1.41255005e+002 41.</_>
    <_>
      2.38367996e+002 85.</_>
    <_>
      2.64368011e+002 95.</_>
    <_>
      2.81053986e+002 95.</_>
    <_>
      3.25539001e+002 95.</_>
    <_>
      3.46066010e+002 96.</_>
    <_>
      3.78350006e+002 106.</_>
    <_>
      3.91178986e+002 106.</_>
    <_>
      3.61078003e+002 102.</_>
    <_>
      3.25764008e+002 111.</_>
    <_>
      4.40049011e+002 115.</_>
    <_>
      4.28250000e+002 115.</_>
    <_>
      4.10006989e+002 115.</_>
    <_>
      3.66592987e+002 114.</_>
    <_>
      4.55261993e+002 119.</_>
    <_>
      3.61664001e+002 119.</_>
    <_>
      3.91078003e+002 120.</_>
    <_>
      4.66877014e+002 121.</_>
    <_>
      5.12960022e+002 122.</_>
    <_>
      5.00191010e+002 124.</_>
    <_>
      4.21622009e+002 120.</_>
    <_>
      3.10852997e+002 110.</_>
    <_>
      2.89438995e+002 109.</_>
    <_>
      2.62467987e+002 109.</_>
    <_>
      2.48569000e+002 103.</_>
    <_>
      2.33154007e+002 98.</_>
    <_>
      1.13112999e+002 43.</_>
    <_>
      1.36384995e+002 51.</_>
    <_>
      2.05639999e+002 72.</_>
    <_>
      1.64283997e+002 60.</_>
    <_>
      2.15882004e+002 74.</_>
    <_>
      3.55053986e+002 127.</_>
    <_>
      3.64550995e+002 127.</_>
    <_>
      3.75664001e+002 127.</_>
    <_>
      4.09947998e+002 128.</_>
    <_>
      4.79161011e+002 128.</_>
    <_>
      4.49220001e+002 121.</_>
    <_>
      3.82492004e+002 120.</_>
    <_>
      5.31403992e+002 121.</_>
    <_>
      4.32877014e+002 121.</_>
    <_>
      4.73505005e+002 119.</_>
    <_>
      3.44592987e+002 117.</_>
    <_>
      3.73622009e+002 119.</_>
    <_>
      3.32408997e+002 107.</_>
    <_>
      3.04266998e+002 105.</_>
    <_>
      2.57196014e+002 90.</_>
    <_>
      2.21397003e+002 89.</_>
    <_>
      1.36082993e+002 44.</_>
    <_>
      2.70023987e+002 102.</_>
    <_>
      2.87782013e+002 103.</_>
    <_>
      3.18023987e+002 105.</_>
    <_>
      3.40408997e+002 105.</_>
    <_>
      4.11321014e+002 121.</_>
    <_>
      4.60777008e+002 125.</_>
    <_>
      3.69907013e+002 124.</_>
    <_>
      4.72290985e+002 125.</_>
    <_>
      3.94350006e+002 127.</_>
    <_>
      2.78125000e+002 110.</_>
    <_>
      1.96912003e+002 77.</_>
    <_>
      3.35983002e+002 130.</_>
    <_>
      3.44266998e+002 131.</_>
    <_>
      4.52936005e+002 132.</_>
    <_>
      5.53203003e+002 126.</_>
    <_>
      2.42125000e+002 100.</_>
    <_>
      2.03397003e+002 83.</_>
    <_>
      1.17556000e+002 51.</_>
    <_>
      1.81598007e+002 65.</_>
    <_>
      2.61539001e+002 106.</_></support_vectors>
  <decision_functions>
    <_>
      <sv_count>200</sv_count>
      <rho>1.5213860132494331e-012</rho>
      <alpha>
        1. 1. 1. 1. 1. 1. 1. 1. 1. 1. 1. 1. 1. 1. 1. 1. 1. 1. 1.
        9.9999999999996603e-001 1. 1. 1. 1. 1. 1. 1. 1. 1. 1. 1. 1. 1.
        9.9999999999998990e-001 1. 1. 1. 1. 1. 1. 1. 1. 1.
        9.9999999999954114e-001 1. 1. 1. 1. 1. 1. 1. 1. 1. 1. 1.
        9.9999999999999534e-001 1. 1. 1. 1. 1. 9.9999999999520384e-001
        9.9999999999999956e-001 1. 1. 1. 1. 1. 1. 1. 1.
        9.9999999999983014e-001 1. 1. 9.9999999999931544e-001 1.
        9.9999999999990308e-001 9.9999999999999978e-001 1. 1.
        9.9999999999931044e-001 9.9999999999833300e-001 1. 1.
        9.9999999999931044e-001 1. 9.9999999999566835e-001
        9.9999999999687794e-001 1. 1. 1. 9.9999999999920697e-001
        9.9999999999998601e-001 9.9999999999999989e-001 1. 1. 1.
        9.9999999999538680e-001 1. 9.9999999999312505e-001 -1. -1. -1.
        -1. -1. -1. -1. -1. -1. -1. -1. -1. -1. -1. -1. -1. -1. -1. -1.
        -1. -1. -1. -1. -1. -1. -1. -1. -1. -1. -1. -1. -1. -1. -1. -1.
        -1. -1. -1. -1. -1. -1. -1. -1. -1. -1. -1. -1. -1. -1. -1. -1.
        -1. -1. -1. -1. -1. -1. -1. -1. -1. -1. -1. -1. -1. -1. -1. -1.
        -1. -1. -1. -1. -1. -1. -1. -9.9999999999999989e-001
        -9.9999999999999978e-001 -9.9999999999999956e-001 -1.
        -9.9999999999999534e-001 -1. -9.9999999999998990e-001
        -9.9999999999998601e-001 -9.9999999999996603e-001
        -9.9999999999990308e-001 -9.9999999999983014e-001
        -9.9999999999954114e-001 -9.9999999999931544e-001
        -9.9999999999931044e-001 -9.9999999999931044e-001
        -9.9999999999920697e-001 -1. -9.9999999999833300e-001
        -9.9999999999687794e-001 -9.9999999999566835e-001
        -9.9999999999538680e-001 -9.9999999999520384e-001 -1. -1.
        -9.9999999999312505e-001 -1.</alpha>
      <index>
        0 1 2 3 4 5 6 7 8 9 10 11 12 13 14 15 16 17 18 19 20 21 22 23 24
        25 26 27 28 29 30 31 32 33 34 35 36 37 38 39 40 41 42 43 44 45
        46 47 48 49 50 51 52 53 54 55 56 57 58 59 60 61 62 63 64 65 66
        67 68 69 70 71 72 73 74 75 76 77 78 79 80 81 82 83 84 85 86 87
        88 89 90 91 92 93 94 95 96 97 98 99 100 101 102 103 104 105 106
        107 108 109 110 111 112 113 114 115 116 117 118 119 120 121 122
        123 124 125 126 127 128 129 130 131 132 133 134 135 136 137 138
        139 140 141 142 143 144 145 146 147 148 149 150 151 152 153 154
        155 156 157 158 159 160 161 162 163 164 165 166 167 168 169 170
        171 172 173 174 175 176 177 178 179 180 181 182 183 184 185 186
        187 188 189 190 191 192 193 194 195 196 197 198 199</index></_></decision_functions></my_svm>
</opencv_storage>
